digraph Tree {
node [shape=box, fontname="helvetica"] ;
edge [fontname="helvetica"] ;
0 [label="x[8] <= 0.5\ngini = 0.487\nsamples = 857\nvalue = [360, 497]"] ;
1 [label="x[5] <= 0.5\ngini = 0.499\nsamples = 743\nvalue = [356.0, 387.0]"] ;
0 -> 1 [labeldistance=2.5, labelangle=45, headlabel="True"] ;
2 [label="x[7] <= 0.5\ngini = 0.476\nsamples = 531\nvalue = [324, 207]"] ;
1 -> 2 ;
3 [label="x[14] <= 0.5\ngini = 0.486\nsamples = 427\nvalue = [249, 178]"] ;
2 -> 3 ;
4 [label="x[9] <= 0.5\ngini = 0.492\nsamples = 400\nvalue = [226.0, 174.0]"] ;
3 -> 4 ;
5 [label="gini = 0.497\nsamples = 354\nvalue = [191, 163]"] ;
4 -> 5 ;
6 [label="gini = 0.364\nsamples = 46\nvalue = [35, 11]"] ;
4 -> 6 ;
7 [label="x[1] <= 37.025\ngini = 0.252\nsamples = 27\nvalue = [23, 4]"] ;
3 -> 7 ;
8 [label="gini = 0.0\nsamples = 1\nvalue = [0, 1]"] ;
7 -> 8 ;
9 [label="gini = 0.204\nsamples = 26\nvalue = [23, 3]"] ;
7 -> 9 ;
10 [label="x[1] <= 70.615\ngini = 0.402\nsamples = 104\nvalue = [75, 29]"] ;
2 -> 10 ;
11 [label="x[9] <= 0.5\ngini = 0.434\nsamples = 88\nvalue = [60.0, 28.0]"] ;
10 -> 11 ;
12 [label="gini = 0.453\nsamples = 75\nvalue = [49, 26]"] ;
11 -> 12 ;
13 [label="gini = 0.26\nsamples = 13\nvalue = [11, 2]"] ;
11 -> 13 ;
14 [label="x[0] <= 0.5\ngini = 0.117\nsamples = 16\nvalue = [15, 1]"] ;
10 -> 14 ;
15 [label="gini = 0.219\nsamples = 8\nvalue = [7, 1]"] ;
14 -> 15 ;
16 [label="gini = 0.0\nsamples = 8\nvalue = [8, 0]"] ;
14 -> 16 ;
17 [label="x[2] <= 1.5\ngini = 0.256\nsamples = 212\nvalue = [32, 180]"] ;
1 -> 17 ;
18 [label="x[3] <= 0.5\ngini = 0.5\nsamples = 16\nvalue = [8, 8]"] ;
17 -> 18 ;
19 [label="gini = 0.0\nsamples = 3\nvalue = [3, 0]"] ;
18 -> 19 ;
20 [label="x[6] <= 0.5\ngini = 0.473\nsamples = 13\nvalue = [5, 8]"] ;
18 -> 20 ;
21 [label="gini = 0.444\nsamples = 12\nvalue = [4, 8]"] ;
20 -> 21 ;
22 [label="gini = 0.0\nsamples = 1\nvalue = [1, 0]"] ;
20 -> 22 ;
23 [label="x[3] <= 0.5\ngini = 0.215\nsamples = 196\nvalue = [24, 172]"] ;
17 -> 23 ;
24 [label="x[14] <= 0.5\ngini = 0.5\nsamples = 24\nvalue = [12, 12]"] ;
23 -> 24 ;
25 [label="gini = 0.49\nsamples = 21\nvalue = [9, 12]"] ;
24 -> 25 ;
26 [label="gini = 0.0\nsamples = 3\nvalue = [3, 0]"] ;
24 -> 26 ;
27 [label="x[21] <= 0.5\ngini = 0.13\nsamples = 172\nvalue = [12, 160]"] ;
23 -> 27 ;
28 [label="gini = 0.131\nsamples = 170\nvalue = [12, 158]"] ;
27 -> 28 ;
29 [label="gini = 0.0\nsamples = 2\nvalue = [0, 2]"] ;
27 -> 29 ;
30 [label="x[7] <= 0.5\ngini = 0.068\nsamples = 114\nvalue = [4, 110]"] ;
0 -> 30 [labeldistance=2.5, labelangle=-45, headlabel="False"] ;
31 [label="x[4] <= 0.5\ngini = 0.035\nsamples = 111\nvalue = [2, 109]"] ;
30 -> 31 ;
32 [label="x[0] <= 0.5\ngini = 0.019\nsamples = 107\nvalue = [1.0, 106.0]"] ;
31 -> 32 ;
33 [label="gini = 0.0\nsamples = 54\nvalue = [0, 54]"] ;
32 -> 33 ;
34 [label="x[12] <= 0.5\ngini = 0.037\nsamples = 53\nvalue = [1, 52]"] ;
32 -> 34 ;
35 [label="gini = 0.041\nsamples = 48\nvalue = [1, 47]"] ;
34 -> 35 ;
36 [label="gini = 0.0\nsamples = 5\nvalue = [0, 5]"] ;
34 -> 36 ;
37 [label="x[15] <= 0.5\ngini = 0.375\nsamples = 4\nvalue = [1, 3]"] ;
31 -> 37 ;
38 [label="x[9] <= 0.5\ngini = 0.444\nsamples = 3\nvalue = [1, 2]"] ;
37 -> 38 ;
39 [label="gini = 0.5\nsamples = 2\nvalue = [1, 1]"] ;
38 -> 39 ;
40 [label="gini = 0.0\nsamples = 1\nvalue = [0, 1]"] ;
38 -> 40 ;
41 [label="gini = 0.0\nsamples = 1\nvalue = [0, 1]"] ;
37 -> 41 ;
42 [label="x[18] <= 0.5\ngini = 0.444\nsamples = 3\nvalue = [2, 1]"] ;
30 -> 42 ;
43 [label="gini = 0.0\nsamples = 1\nvalue = [1, 0]"] ;
42 -> 43 ;
44 [label="x[6] <= 0.5\ngini = 0.5\nsamples = 2\nvalue = [1, 1]"] ;
42 -> 44 ;
45 [label="gini = 0.0\nsamples = 1\nvalue = [1, 0]"] ;
44 -> 45 ;
46 [label="gini = 0.0\nsamples = 1\nvalue = [0, 1]"] ;
44 -> 46 ;
}